\data\
ngram 1=109
ngram 2=212
ngram 3=115

\1-grams:
-0.7917 </s> -0.3010
-0.7917 <s> -0.2237
-2.8129 A -0.2245
-2.8129 ADD -0.2245
-2.8129 AMOUNT -0.2245
-2.8129 AND -0.2245
-2.8129 B -0.2245
-2.8129 BE -0.3004
-2.8129 BILLION -0.2245
-2.8129 BITCH -0.2245
-2.8129 BLUE -0.2245
-2.8129 C -0.2245
-2.8129 COMMAND -0.2245
-2.8129 CONTROLLER -0.2245
-2.8129 CUNT -0.2245
-2.8129 D -0.2245
-2.8129 DOWN -0.2245
-2.8129 E -0.2245
-2.8129 EIGHT -0.2245
-2.8129 EIGHTEEN -0.2245
-2.8129 EIGHTY -0.2245
-2.8129 ELEVEN -0.2245
-2.8129 ELI -0.2245
-2.8129 ELI'S -0.2245
-2.8129 F -0.2245
-2.8129 FIVE -0.2245
-2.8129 FIVETEEN -0.2245
-2.8129 FIVETY -0.2245
-2.8129 FOUR -0.2245
-2.8129 FOURTEEN -0.2245
-2.8129 FOURTY -0.2245
-2.8129 FUCKER -0.2245
-2.8129 G -0.2245
-2.8129 GOOGLE -0.2245
-2.8129 GREEN -0.2245
-2.8129 H -0.2245
-1.9098 HEY -0.2957
-2.8129 HOME -0.2245
-2.8129 HUNDRED -0.2245
-2.8129 I -0.2245
-2.8129 IKAIKA -0.2245
-2.8129 IKAIKA'S -0.2245
-2.8129 J -0.2245
-2.8129 K -0.2245
-2.8129 L -0.2245
-2.8129 LIAM -0.2245
-2.8129 LIAM'S -0.2245
-2.8129 LIGHTS -0.2245
-2.8129 M -0.2245
-2.8129 MILLION -0.2245
-2.8129 MUTE -0.2245
-2.8129 N -0.2245
-2.8129 NEW -0.2245
-2.8129 NINE -0.2245
-2.8129 NINETEEN -0.2245
-2.8129 NINETY -0.2245
-2.8129 O -0.2245
-2.8129 OFF -0.2245
-2.8129 ON -0.2245
-2.8129 ONE -0.2245
-2.8129 P -0.2245
-2.8129 PANDORA -0.2245
-2.8129 PERCENT -0.2245
-2.8129 PIE -0.2245
-2.8129 PLAY -0.2245
-2.8129 Q -0.2245
-2.8129 QUIET -0.2245
-2.8129 R -0.2245
-2.8129 RADIO -0.2245
-2.8129 RASPI -0.2245
-2.8129 RED -0.2245
-2.8129 RGB -0.2245
-2.8129 RGB'S -0.2245
-2.8129 S -0.2245
-2.8129 SEARCH -0.2245
-2.8129 SET -0.2245
-2.8129 SEVEN -0.2245
-2.8129 SEVENTEEN -0.2245
-2.8129 SEVENTY -0.2245
-2.8129 SHUT -0.2997
-2.8129 SHUTDOWN -0.2245
-2.8129 SIX -0.2245
-2.8129 SIXTEEN -0.2245
-2.8129 SIXTY -0.2245
-2.8129 SLUT -0.2245
-2.8129 SOUND -0.2245
-2.8129 SPOTIFY -0.2245
-2.8129 STATION -0.2245
-2.8129 T -0.2245
-2.8129 TEN -0.2245
-2.8129 THIRTEEN -0.2245
-2.8129 THIRTY -0.2245
-2.8129 THOUSAND -0.2245
-2.8129 THREE -0.2245
-2.8129 TO -0.2245
-2.8129 TRILLION -0.2245
-2.8129 TURN -0.2245
-2.8129 TWELVE -0.2245
-2.8129 TWENTY -0.2245
-2.8129 TWO -0.2245
-2.8129 U -0.2245
-2.5119 UP -0.2245
-2.8129 V -0.2245
-2.8129 VOLUME -0.2245
-2.8129 W -0.2245
-2.8129 X -0.2245
-2.8129 Y -0.2245
-2.8129 YOUTUBE -0.2245
-2.8129 Z -0.2245

\2-grams:
-2.3222 <s> A 0.0000
-2.3222 <s> ADD 0.0000
-2.3222 <s> AMOUNT 0.0000
-2.3222 <s> AND 0.0000
-2.3222 <s> B 0.0000
-2.3222 <s> BE 0.0000
-2.3222 <s> BILLION 0.0000
-2.3222 <s> BLUE 0.0000
-2.3222 <s> C 0.0000
-2.3222 <s> COMMAND 0.0000
-2.3222 <s> D 0.0000
-2.3222 <s> DOWN 0.0000
-2.3222 <s> E 0.0000
-2.3222 <s> EIGHT 0.0000
-2.3222 <s> EIGHTEEN 0.0000
-2.3222 <s> EIGHTY 0.0000
-2.3222 <s> ELEVEN 0.0000
-2.3222 <s> ELI 0.0000
-2.3222 <s> ELI'S 0.0000
-2.3222 <s> F 0.0000
-2.3222 <s> FIVE 0.0000
-2.3222 <s> FIVETEEN 0.0000
-2.3222 <s> FIVETY 0.0000
-2.3222 <s> FOUR 0.0000
-2.3222 <s> FOURTEEN 0.0000
-2.3222 <s> FOURTY 0.0000
-2.3222 <s> G 0.0000
-2.3222 <s> GOOGLE 0.0000
-2.3222 <s> GREEN 0.0000
-2.3222 <s> H 0.0000
-1.4191 <s> HEY 0.0000
-2.3222 <s> HUNDRED 0.0000
-2.3222 <s> I 0.0000
-2.3222 <s> IKAIKA 0.0000
-2.3222 <s> IKAIKA'S 0.0000
-2.3222 <s> J 0.0000
-2.3222 <s> K 0.0000
-2.3222 <s> L 0.0000
-2.3222 <s> LIAM 0.0000
-2.3222 <s> LIAM'S 0.0000
-2.3222 <s> LIGHTS 0.0000
-2.3222 <s> M 0.0000
-2.3222 <s> MILLION 0.0000
-2.3222 <s> MUTE 0.0000
-2.3222 <s> N 0.0000
-2.3222 <s> NEW 0.0000
-2.3222 <s> NINE 0.0000
-2.3222 <s> NINETEEN 0.0000
-2.3222 <s> NINETY 0.0000
-2.3222 <s> O 0.0000
-2.3222 <s> OFF 0.0000
-2.3222 <s> ON 0.0000
-2.3222 <s> ONE 0.0000
-2.3222 <s> P 0.0000
-2.3222 <s> PANDORA 0.0000
-2.3222 <s> PERCENT 0.0000
-2.3222 <s> PLAY 0.0000
-2.3222 <s> Q 0.0000
-2.3222 <s> R 0.0000
-2.3222 <s> RADIO 0.0000
-2.3222 <s> RED 0.0000
-2.3222 <s> RGB 0.0000
-2.3222 <s> RGB'S 0.0000
-2.3222 <s> S 0.0000
-2.3222 <s> SEARCH 0.0000
-2.3222 <s> SET 0.0000
-2.3222 <s> SEVEN 0.0000
-2.3222 <s> SEVENTEEN 0.0000
-2.3222 <s> SEVENTY 0.0000
-2.3222 <s> SHUT 0.0000
-2.3222 <s> SHUTDOWN 0.0000
-2.3222 <s> SIX 0.0000
-2.3222 <s> SIXTEEN 0.0000
-2.3222 <s> SIXTY 0.0000
-2.3222 <s> SOUND 0.0000
-2.3222 <s> SPOTIFY 0.0000
-2.3222 <s> STATION 0.0000
-2.3222 <s> T 0.0000
-2.3222 <s> TEN 0.0000
-2.3222 <s> THIRTEEN 0.0000
-2.3222 <s> THIRTY 0.0000
-2.3222 <s> THOUSAND 0.0000
-2.3222 <s> THREE 0.0000
-2.3222 <s> TO 0.0000
-2.3222 <s> TRILLION 0.0000
-2.3222 <s> TURN 0.0000
-2.3222 <s> TWELVE 0.0000
-2.3222 <s> TWENTY 0.0000
-2.3222 <s> TWO 0.0000
-2.3222 <s> U 0.0000
-2.3222 <s> UP 0.0000
-2.3222 <s> V 0.0000
-2.3222 <s> VOLUME 0.0000
-2.3222 <s> W 0.0000
-2.3222 <s> X 0.0000
-2.3222 <s> Y 0.0000
-2.3222 <s> YOUTUBE 0.0000
-2.3222 <s> Z 0.0000
-0.3010 A </s> -0.3010
-0.3010 ADD </s> -0.3010
-0.3010 AMOUNT </s> -0.3010
-0.3010 AND </s> -0.3010
-0.3010 B </s> -0.3010
-0.3010 BE QUIET 0.0000
-0.3010 BILLION </s> -0.3010
-0.3010 BITCH </s> -0.3010
-0.3010 BLUE </s> -0.3010
-0.3010 C </s> -0.3010
-0.3010 COMMAND </s> -0.3010
-0.3010 CONTROLLER </s> -0.3010
-0.3010 CUNT </s> -0.3010
-0.3010 D </s> -0.3010
-0.3010 DOWN </s> -0.3010
-0.3010 E </s> -0.3010
-0.3010 EIGHT </s> -0.3010
-0.3010 EIGHTEEN </s> -0.3010
-0.3010 EIGHTY </s> -0.3010
-0.3010 ELEVEN </s> -0.3010
-0.3010 ELI </s> -0.3010
-0.3010 ELI'S </s> -0.3010
-0.3010 F </s> -0.3010
-0.3010 FIVE </s> -0.3010
-0.3010 FIVETEEN </s> -0.3010
-0.3010 FIVETY </s> -0.3010
-0.3010 FOUR </s> -0.3010
-0.3010 FOURTEEN </s> -0.3010
-0.3010 FOURTY </s> -0.3010
-0.3010 FUCKER </s> -0.3010
-0.3010 G </s> -0.3010
-0.3010 GOOGLE </s> -0.3010
-0.3010 GREEN </s> -0.3010
-0.3010 H </s> -0.3010
-1.2041 HEY BITCH 0.0000
-1.2041 HEY CONTROLLER 0.0000
-1.2041 HEY CUNT 0.0000
-1.2041 HEY FUCKER 0.0000
-1.2041 HEY HOME 0.0000
-1.2041 HEY PIE 0.0000
-1.2041 HEY RASPI 0.0000
-1.2041 HEY SLUT 0.0000
-0.3010 HOME </s> -0.3010
-0.3010 HUNDRED </s> -0.3010
-0.3010 I </s> -0.3010
-0.3010 IKAIKA </s> -0.3010
-0.3010 IKAIKA'S </s> -0.3010
-0.3010 J </s> -0.3010
-0.3010 K </s> -0.3010
-0.3010 L </s> -0.3010
-0.3010 LIAM </s> -0.3010
-0.3010 LIAM'S </s> -0.3010
-0.3010 LIGHTS </s> -0.3010
-0.3010 M </s> -0.3010
-0.3010 MILLION </s> -0.3010
-0.3010 MUTE </s> -0.3010
-0.3010 N </s> -0.3010
-0.3010 NEW </s> -0.3010
-0.3010 NINE </s> -0.3010
-0.3010 NINETEEN </s> -0.3010
-0.3010 NINETY </s> -0.3010
-0.3010 O </s> -0.3010
-0.3010 OFF </s> -0.3010
-0.3010 ON </s> -0.3010
-0.3010 ONE </s> -0.3010
-0.3010 P </s> -0.3010
-0.3010 PANDORA </s> -0.3010
-0.3010 PERCENT </s> -0.3010
-0.3010 PIE </s> -0.3010
-0.3010 PLAY </s> -0.3010
-0.3010 Q </s> -0.3010
-0.3010 QUIET </s> -0.3010
-0.3010 R </s> -0.3010
-0.3010 RADIO </s> -0.3010
-0.3010 RASPI </s> -0.3010
-0.3010 RED </s> -0.3010
-0.3010 RGB </s> -0.3010
-0.3010 RGB'S </s> -0.3010
-0.3010 S </s> -0.3010
-0.3010 SEARCH </s> -0.3010
-0.3010 SET </s> -0.3010
-0.3010 SEVEN </s> -0.3010
-0.3010 SEVENTEEN </s> -0.3010
-0.3010 SEVENTY </s> -0.3010
-0.3010 SHUT UP 0.0000
-0.3010 SHUTDOWN </s> -0.3010
-0.3010 SIX </s> -0.3010
-0.3010 SIXTEEN </s> -0.3010
-0.3010 SIXTY </s> -0.3010
-0.3010 SLUT </s> -0.3010
-0.3010 SOUND </s> -0.3010
-0.3010 SPOTIFY </s> -0.3010
-0.3010 STATION </s> -0.3010
-0.3010 T </s> -0.3010
-0.3010 TEN </s> -0.3010
-0.3010 THIRTEEN </s> -0.3010
-0.3010 THIRTY </s> -0.3010
-0.3010 THOUSAND </s> -0.3010
-0.3010 THREE </s> -0.3010
-0.3010 TO </s> -0.3010
-0.3010 TRILLION </s> -0.3010
-0.3010 TURN </s> -0.3010
-0.3010 TWELVE </s> -0.3010
-0.3010 TWENTY </s> -0.3010
-0.3010 TWO </s> -0.3010
-0.3010 U </s> -0.3010
-0.3010 UP </s> -0.3010
-0.3010 V </s> -0.3010
-0.3010 VOLUME </s> -0.3010
-0.3010 W </s> -0.3010
-0.3010 X </s> -0.3010
-0.3010 Y </s> -0.3010
-0.3010 YOUTUBE </s> -0.3010
-0.3010 Z </s> -0.3010

\3-grams:
-0.3010 <s> A </s>
-0.3010 <s> ADD </s>
-0.3010 <s> AMOUNT </s>
-0.3010 <s> AND </s>
-0.3010 <s> B </s>
-0.3010 <s> BE QUIET
-0.3010 <s> BILLION </s>
-0.3010 <s> BLUE </s>
-0.3010 <s> C </s>
-0.3010 <s> COMMAND </s>
-0.3010 <s> D </s>
-0.3010 <s> DOWN </s>
-0.3010 <s> E </s>
-0.3010 <s> EIGHT </s>
-0.3010 <s> EIGHTEEN </s>
-0.3010 <s> EIGHTY </s>
-0.3010 <s> ELEVEN </s>
-0.3010 <s> ELI </s>
-0.3010 <s> ELI'S </s>
-0.3010 <s> F </s>
-0.3010 <s> FIVE </s>
-0.3010 <s> FIVETEEN </s>
-0.3010 <s> FIVETY </s>
-0.3010 <s> FOUR </s>
-0.3010 <s> FOURTEEN </s>
-0.3010 <s> FOURTY </s>
-0.3010 <s> G </s>
-0.3010 <s> GOOGLE </s>
-0.3010 <s> GREEN </s>
-0.3010 <s> H </s>
-1.2041 <s> HEY BITCH
-1.2041 <s> HEY CONTROLLER
-1.2041 <s> HEY CUNT
-1.2041 <s> HEY FUCKER
-1.2041 <s> HEY HOME
-1.2041 <s> HEY PIE
-1.2041 <s> HEY RASPI
-1.2041 <s> HEY SLUT
-0.3010 <s> HUNDRED </s>
-0.3010 <s> I </s>
-0.3010 <s> IKAIKA </s>
-0.3010 <s> IKAIKA'S </s>
-0.3010 <s> J </s>
-0.3010 <s> K </s>
-0.3010 <s> L </s>
-0.3010 <s> LIAM </s>
-0.3010 <s> LIAM'S </s>
-0.3010 <s> LIGHTS </s>
-0.3010 <s> M </s>
-0.3010 <s> MILLION </s>
-0.3010 <s> MUTE </s>
-0.3010 <s> N </s>
-0.3010 <s> NEW </s>
-0.3010 <s> NINE </s>
-0.3010 <s> NINETEEN </s>
-0.3010 <s> NINETY </s>
-0.3010 <s> O </s>
-0.3010 <s> OFF </s>
-0.3010 <s> ON </s>
-0.3010 <s> ONE </s>
-0.3010 <s> P </s>
-0.3010 <s> PANDORA </s>
-0.3010 <s> PERCENT </s>
-0.3010 <s> PLAY </s>
-0.3010 <s> Q </s>
-0.3010 <s> R </s>
-0.3010 <s> RADIO </s>
-0.3010 <s> RED </s>
-0.3010 <s> RGB </s>
-0.3010 <s> RGB'S </s>
-0.3010 <s> S </s>
-0.3010 <s> SEARCH </s>
-0.3010 <s> SET </s>
-0.3010 <s> SEVEN </s>
-0.3010 <s> SEVENTEEN </s>
-0.3010 <s> SEVENTY </s>
-0.3010 <s> SHUT UP
-0.3010 <s> SHUTDOWN </s>
-0.3010 <s> SIX </s>
-0.3010 <s> SIXTEEN </s>
-0.3010 <s> SIXTY </s>
-0.3010 <s> SOUND </s>
-0.3010 <s> SPOTIFY </s>
-0.3010 <s> STATION </s>
-0.3010 <s> T </s>
-0.3010 <s> TEN </s>
-0.3010 <s> THIRTEEN </s>
-0.3010 <s> THIRTY </s>
-0.3010 <s> THOUSAND </s>
-0.3010 <s> THREE </s>
-0.3010 <s> TO </s>
-0.3010 <s> TRILLION </s>
-0.3010 <s> TURN </s>
-0.3010 <s> TWELVE </s>
-0.3010 <s> TWENTY </s>
-0.3010 <s> TWO </s>
-0.3010 <s> U </s>
-0.3010 <s> UP </s>
-0.3010 <s> V </s>
-0.3010 <s> VOLUME </s>
-0.3010 <s> W </s>
-0.3010 <s> X </s>
-0.3010 <s> Y </s>
-0.3010 <s> YOUTUBE </s>
-0.3010 <s> Z </s>
-0.3010 BE QUIET </s>
-0.3010 HEY BITCH </s>
-0.3010 HEY CONTROLLER </s>
-0.3010 HEY CUNT </s>
-0.3010 HEY FUCKER </s>
-0.3010 HEY HOME </s>
-0.3010 HEY PIE </s>
-0.3010 HEY RASPI </s>
-0.3010 HEY SLUT </s>
-0.3010 SHUT UP </s>

\end\
